
#include "network_evaluate.h"



float linear(float num) {
	return num;
}



float sigmoid(float num) {
	return 1 / (1 + exp(-num));
}



float relu(float num) {
	if (num > 0) {
		return num;
	} else {
		return 0;
	}
}

static const int structure [8][2] = {{6, 8},{8, 8},{24, 16},{16, 16},{4, 8},{8, 8},{32, 32},{32, 4}};
static float output_0[8];
static float output_1[8];
static float output_2[16];
static float output_3[16];
static float output_4[8];
static float output_5[8];
static float output_6[32];
static float output_7[4];
static const float actor_encoder_neighbor_encoder_embedding_mlp_0_weight[6][8] = {{-1.092889666557312,-1.081666350364685,0.679504930973053,-0.5616474747657776,0.13464803993701935,0.7226642370223999,0.48835498094558716,-0.21455924212932587},{-1.5102940797805786,0.5694494843482971,-0.4560851454734802,1.1072384119033813,0.5881859064102173,0.08831464499235153,0.9356608986854553,-0.5891360640525818},{0.182077556848526,-0.2872230112552643,-0.4033271074295044,-0.7344157099723816,0.05891537293791771,0.10208164900541306,0.36243194341659546,-0.46841341257095337},{-0.46942976117134094,-0.15713070333003998,-0.15065249800682068,-0.044977668672800064,0.1376054733991623,0.34258636832237244,-0.16762594878673553,-0.46302399039268494},{-0.46903079748153687,0.5760296583175659,0.1818675845861435,0.776542603969574,0.2731572985649109,0.06389620900154114,0.02503923885524273,0.09812162816524506},{0.045190244913101196,-0.003494483884423971,0.28441330790519714,-0.3791617453098297,-0.03652293607592583,-0.19998013973236084,0.29996299743652344,-0.052903372794389725}};
static const float actor_encoder_neighbor_encoder_embedding_mlp_2_weight[8][8] = {{0.5450071096420288,0.6611356139183044,-0.4794972538948059,-0.09840940684080124,0.2940904498100281,0.3678080439567566,0.2880191504955292,0.9098531603813171},{-0.2619522213935852,0.24098458886146545,0.6445767283439636,0.08023159950971603,0.23879095911979675,-0.31969934701919556,-0.20606543123722076,0.7466508746147156},{-0.44369569420814514,-0.2474844753742218,-0.00565413199365139,0.26375681161880493,-0.018206069245934486,0.023426633328199387,-0.16188259422779083,-0.4154062569141388},{0.44569826126098633,-0.28178852796554565,0.6656649708747864,0.3368382155895233,0.2386900633573532,0.14975818991661072,-0.28328317403793335,0.43996095657348633},{-0.4395090341567993,0.4751938581466675,0.08155037462711334,0.4774920344352722,-0.514462947845459,0.15652571618556976,0.33619990944862366,-0.4700428545475006},{0.34915289282798767,0.2689851224422455,0.03784151002764702,0.017680300399661064,-0.19334065914154053,0.4109213948249817,-0.5617498755455017,-0.611152708530426},{0.19342465698719025,0.44204142689704895,0.7736146450042725,-0.16440068185329437,-0.32985299825668335,-0.15512403845787048,-0.13116371631622314,0.10271535813808441},{-0.02026921510696411,0.012659722939133644,-0.4327048063278198,0.14761723577976227,-0.621137797832489,-0.28161126375198364,-0.6285256743431091,-0.10298240929841995}};
static const float actor_encoder_self_encoder_0_weight[24][16] = {{0.0474136546254158,-0.15890799462795258,0.13855426013469696,0.11219476163387299,-0.0715380311012268,-0.13960419595241547,0.0958574190735817,0.020098406821489334,0.007899771444499493,-0.001393330399878323,-0.10202992707490921,0.05086734890937805,-0.011124273762106895,0.21500273048877716,0.0513884574174881,0.4419041574001312},{0.06577276438474655,-0.07884109020233154,0.012867334298789501,-0.1562064290046692,0.15835796296596527,0.2073042243719101,0.18400579690933228,-0.041920099407434464,-0.1437409222126007,-0.04211687296628952,-0.002583646448329091,0.06070179492235184,-0.0819791778922081,0.12534934282302856,-0.04910862445831299,-0.2006717026233673},{-0.39236560463905334,0.09302444756031036,0.32112058997154236,0.02739536762237549,0.029562165960669518,0.08224621415138245,0.08360419422388077,0.24323071539402008,0.17255409061908722,-0.03934306278824806,0.12365468591451645,-0.048597391694784164,0.3243587017059326,-0.3817482590675354,0.41220682859420776,-0.03092108853161335},{-0.34122613072395325,0.22397209703922272,0.6079371571540833,-0.2086004912853241,0.24662122130393982,0.13355061411857605,0.0452897734940052,0.40714675188064575,0.054532527923583984,-0.189839705824852,-0.3022148907184601,0.15006251633167267,-0.10235428810119629,0.07143547385931015,-0.0444338321685791,0.5254623293876648},{-0.15803174674510956,-0.33192992210388184,-0.2754344642162323,-0.4925517141819,-0.21688276529312134,0.37540239095687866,0.1892228126525879,0.25023990869522095,-0.19003652036190033,-0.07095532864332199,-0.05749049410223961,-0.45395201444625854,-0.010488391853868961,-0.3111189305782318,0.25215402245521545,-0.22053508460521698},{-0.32915523648262024,0.06390834599733353,0.36823582649230957,-0.05836556479334831,-0.22408194839954376,0.07365790754556656,0.014872460626065731,-0.22387324273586273,0.12357784807682037,-0.16639168560504913,0.0761544406414032,-0.067327119410038,0.40855956077575684,-0.22597774863243103,0.36518383026123047,0.2635345160961151},{0.24096259474754333,-0.28382202982902527,0.13551996648311615,0.32902368903160095,0.5785143971443176,0.11551377177238464,0.15377332270145416,-0.45182156562805176,-0.17643702030181885,-0.19800151884555817,0.10371338576078415,0.024592282250523567,-0.2560928463935852,-0.22726058959960938,0.501345694065094,0.15366685390472412},{0.09084007143974304,0.0015025078319013119,0.07213716208934784,0.16262559592723846,-0.09906628727912903,0.07743243873119354,0.07552281767129898,0.26601260900497437,0.5590873956680298,0.5852142572402954,-0.0852108970284462,0.27372217178344727,0.21038995683193207,-0.080500528216362,-0.04834074154496193,0.012777213007211685},{0.31022384762763977,0.2748267948627472,0.541726291179657,-0.19961728155612946,0.8005759716033936,-0.008751306682825089,0.250153124332428,0.3250892758369446,0.3424604535102844,-0.9326171875,-1.1852355003356934,-0.05172860994935036,0.23287594318389893,-0.3042052686214447,0.035101138055324554,0.604780375957489},{-0.39348191022872925,0.3455919623374939,0.4649498462677002,-0.09802321344614029,0.33600711822509766,-0.11636559665203094,-0.02701002173125744,-0.30533212423324585,0.10070359706878662,0.08635535836219788,-0.24466419219970703,-0.2914216220378876,-0.6783241629600525,-0.2800760567188263,-0.19695164263248444,0.1948564350605011},{-0.06212702393531799,-0.29109930992126465,0.3731992244720459,0.17464414238929749,0.08807717263698578,-0.12062746286392212,-0.26960232853889465,-0.4283347725868225,-0.6082201600074768,-0.5424484610557556,-0.08674030005931854,0.7092313170433044,-0.13482482731342316,-0.17024344205856323,0.4604180157184601,-0.067247174680233},{-0.25865697860717773,-0.7527055144309998,-0.2045590579509735,-0.22865743935108185,-0.5456250309944153,-0.5555514693260193,1.2696754932403564,0.38498279452323914,-0.6194272637367249,0.29857710003852844,0.05054961517453194,0.0416388139128685,-0.20358210802078247,-0.5454708933830261,-0.12863373756408691,0.02967914193868637},{-0.32518455386161804,0.29288825392723083,0.7063623070716858,0.5568690299987793,0.4679275453090668,-0.46097496151924133,-0.6071808934211731,0.425843745470047,0.9741321206092834,-0.6053732633590698,-0.24808593094348907,0.0598313994705677,-0.4571734666824341,0.13165047764778137,-0.4847484230995178,0.06022370606660843},{0.11343587189912796,-0.3183533549308777,0.42159709334373474,-0.82619708776474,0.07346498221158981,-0.0515049584209919,0.44632694125175476,0.1518237590789795,-0.12523561716079712,-0.4605036973953247,-1.0405778884887695,-0.4740922749042511,0.30688366293907166,-0.15523652732372284,0.06992429494857788,0.8497292399406433},{0.4388742744922638,-0.029756374657154083,0.2866249680519104,-0.541759729385376,-0.3451884090900421,-0.15475334227085114,0.33695369958877563,-0.23045401275157928,0.21225497126579285,-0.4781096279621124,-0.07874257862567902,-0.18351493775844574,0.07707411795854568,-0.20710821449756622,-0.5401622653007507,0.16409148275852203},{-0.10593871772289276,0.03437907621264458,-0.18897908926010132,-0.24411247670650482,-0.07012943178415298,-0.1920803189277649,0.08166855573654175,0.09739936143159866,-0.03571971505880356,-0.09214097261428833,-0.16631098091602325,0.25885722041130066,0.1122637391090393,-0.03998121619224548,0.16592055559158325,0.2797323167324066},{-0.020296283066272736,-0.20429091155529022,-0.1719626784324646,-0.1618199497461319,-0.012336967512965202,-0.17323243618011475,0.12918855249881744,0.24195246398448944,-0.18870316445827484,0.2196129709482193,0.09180564433336258,-0.006965891923755407,-0.1788281798362732,0.036599062383174896,0.18121060729026794,-0.10956761986017227},{0.30353623628616333,0.42643967270851135,-0.06268535554409027,-0.00537447351962328,-0.307197630405426,-0.16382703185081482,0.21382750570774078,0.4957178235054016,0.04364603012800217,0.2488424926996231,0.005553296767175198,-0.0928831547498703,0.26187777519226074,0.44055017828941345,0.023589538410305977,-0.03783370181918144},{-0.13284330070018768,0.22158923745155334,-0.18489854037761688,-0.0524483323097229,0.15249338746070862,-0.1292201280593872,-0.18397532403469086,0.007670418359339237,-0.026075975969433784,-0.41877639293670654,-0.2830227017402649,-0.39350029826164246,0.27161043882369995,0.13915325701236725,-0.18981869518756866,-0.16010820865631104},{-0.20187273621559143,0.2656576931476593,0.28631311655044556,0.16872930526733398,-0.2966882884502411,-0.2103434056043625,0.22705836594104767,-0.1269230842590332,-0.1708153337240219,0.20888486504554749,0.08957339823246002,-0.031714025884866714,-0.03210253641009331,-0.3187028169631958,-0.2590457797050476,-0.06864432990550995},{0.043944619596004486,0.15483075380325317,0.1549471616744995,-0.37358358502388,-0.3692646920681,-0.07507312297821045,0.010705766268074512,-0.02925487607717514,-0.012992185540497303,0.011484133079648018,-0.023393627256155014,-0.0919366180896759,-0.21377290785312653,-0.42410969734191895,0.1963983178138733,0.2768072783946991},{0.3266046345233917,0.20993630588054657,-0.33208686113357544,-0.17188464105129242,-0.23307475447654724,0.02250842936336994,0.06873299926519394,0.05172790214419365,-0.0346103236079216,-0.281602680683136,0.45725226402282715,0.2901768684387207,-0.04551855847239494,0.2135646790266037,0.33484700322151184,0.17056412994861603},{-0.15642881393432617,0.24791176617145538,0.2426874041557312,-0.03799847513437271,0.05584441497921944,-0.19831794500350952,-0.18056584894657135,-0.3296351134777069,0.3364708423614502,-0.36717718839645386,0.19001202285289764,0.07181571424007416,0.0898812860250473,-0.12041277438402176,0.2569638192653656,-0.1334339827299118},{0.11470682919025421,0.347052663564682,-0.03292449563741684,0.3973675072193146,0.029587291181087494,-0.38274329900741577,-0.04169101640582085,-0.3001824915409088,0.13466651737689972,0.3697361350059509,0.07177657634019852,-0.11587057262659073,-0.42428383231163025,-0.1883983314037323,0.2946138381958008,0.2408454716205597}};
static const float actor_encoder_self_encoder_2_weight[16][16] = {{-0.09429587423801422,-0.029505275189876556,0.04257366806268692,0.19887390732765198,0.044723499566316605,-0.19761617481708527,0.20895087718963623,-0.20935189723968506,-0.08784238249063492,-0.06295830756425858,-0.3025597035884857,0.010990116745233536,0.22185450792312622,0.2973901927471161,0.017010129988193512,-0.18402566015720367},{0.45549193024635315,-0.16134552657604218,0.11425021290779114,-0.2566679120063782,-0.45829954743385315,-0.3525983691215515,0.24803099036216736,-0.19972625374794006,0.47187456488609314,0.11065447330474854,0.2191806584596634,-0.3409405052661896,-0.13464103639125824,-0.03008212335407734,-0.18036510050296783,-0.10804623365402222},{0.03332064300775528,0.20444437861442566,-0.19964833557605743,0.057586535811424255,0.10879335552453995,-0.3241097629070282,-0.3007318377494812,0.18576937913894653,-0.3917602002620697,0.11390049755573273,0.1854223906993866,0.3402729630470276,0.2339196503162384,0.25564348697662354,-0.08141274005174637,-0.410183310508728},{-0.06430893391370773,0.1977374404668808,0.05869419500231743,-0.1282968521118164,0.012661077082157135,-0.09151216596364975,-0.24703016877174377,0.10385310649871826,-0.19631695747375488,-0.11971034854650497,-0.3206482231616974,0.04782618582248688,0.2222064882516861,-0.2804613411426544,0.1476215422153473,0.4521069824695587},{0.23795902729034424,0.44744113087654114,0.027098804712295532,-0.0158825796097517,0.27452200651168823,-0.09536615759134293,0.025965575128793716,0.33902662992477417,0.3413442373275757,-0.19403834640979767,0.01250054407864809,0.6164540648460388,0.2580583095550537,-0.0058889007195830345,-0.10402573645114899,0.24964633584022522},{-0.21622201800346375,-0.00489433016628027,0.5048066973686218,0.13655392825603485,-0.29459184408187866,0.20880046486854553,0.1516200602054596,-0.1401239037513733,-0.36783552169799805,-0.26728618144989014,-0.33932358026504517,-0.3509657382965088,-0.4515720009803772,-0.36239108443260193,-0.26344338059425354,-0.48115867376327515},{-0.23689094185829163,-0.3039807081222534,-0.40456387400627136,-0.05670570209622383,0.2791546583175659,0.39754754304885864,0.1256200224161148,-0.23586046695709229,0.17991195619106293,0.2686602473258972,0.2522115707397461,0.10310375690460205,0.00808039028197527,0.2980591356754303,0.06258276849985123,-0.02323639951646328},{-0.2712974548339844,0.21150386333465576,0.052197013050317764,0.15535706281661987,0.004198444075882435,-0.01870151422917843,0.09630163013935089,-0.23427735269069672,-0.1726367026567459,0.4385194778442383,0.027605943381786346,0.24886693060398102,-0.36080676317214966,0.10024954378604889,0.21868234872817993,-0.00973503664135933},{0.28110748529434204,0.2685466706752777,0.22294726967811584,-0.48958414793014526,-0.4845539331436157,-0.13617964088916779,-0.10935450345277786,0.22877661883831024,0.018022146075963974,0.28103673458099365,0.022493872791528702,0.2301662713289261,-0.32426151633262634,0.3747105598449707,0.2782924175262451,-0.217986598610878},{-0.4743955135345459,-0.26421478390693665,-0.21418459713459015,0.2560257613658905,-0.10738824307918549,0.06860365718603134,0.30776000022888184,0.06863100081682205,-0.15874001383781433,0.24967756867408752,-0.11205330491065979,0.11770357191562653,0.2055039405822754,0.3321603536605835,0.34080275893211365,0.41212961077690125},{-0.19219893217086792,-0.12509383261203766,0.3398383557796478,0.465451180934906,-0.17053858935832977,-0.24610528349876404,-0.029902266338467598,0.06635258346796036,-0.058681610971689224,0.2594090402126312,-0.5046629309654236,-0.2867070734500885,0.5013111233711243,0.08572536706924438,-0.02314150147140026,-0.3655414581298828},{-0.23534268140792847,-0.11998480558395386,0.354912668466568,0.26964762806892395,0.34396401047706604,0.06407434493303299,-0.12000992149114609,0.27739307284355164,-0.037179019302129745,-0.0817287340760231,-0.31748127937316895,0.2566186785697937,-0.07990958541631699,-0.16129891574382782,0.25998005270957947,-0.14210493862628937},{-0.2605777680873871,-0.28092291951179504,-0.09774376451969147,-0.03869554027915001,0.27551621198654175,-0.15316921472549438,-0.3365318179130554,0.0782131776213646,-0.01883406564593315,0.3926033079624176,0.17203174531459808,0.34607088565826416,0.14964641630649567,-0.40542715787887573,0.7775593996047974,0.11209504306316376},{-0.21763280034065247,0.2473525106906891,-0.13433679938316345,-0.27333521842956543,-0.012040771543979645,-0.33951422572135925,0.3724009692668915,-0.2244279682636261,0.32175585627555847,-0.45046743750572205,-0.4922947883605957,-0.09079132229089737,-0.3954685628414154,0.08996482193470001,-0.004280995577573776,0.4769095182418823},{-0.06407590210437775,-0.30949926376342773,0.11706575006246567,-0.3034777045249939,0.08663488924503326,-0.3418640196323395,-0.48535671830177307,0.2928806245326996,-0.15861286222934723,0.08698993176221848,-0.24345529079437256,-0.23196525871753693,0.2384033352136612,-0.543125331401825,-0.2560064196586609,-0.3821864724159241},{-0.3362291157245636,0.10098950564861298,-0.13391545414924622,-6.008827404002659e-05,0.012516738846898079,-0.24965444207191467,0.058159343898296356,-0.4304412603378296,0.11010182648897171,-0.23643356561660767,0.3344457745552063,0.409473717212677,0.44487929344177246,-0.1259240061044693,-0.23584416508674622,-0.11503494530916214}};
static const float actor_encoder_obstacle_encoder_0_weight[4][8] = {{-0.17177769541740417,-0.2865225076675415,0.6194074749946594,0.5037638545036316,-0.6379709243774414,-1.0871025323867798,0.4968515932559967,0.8843217492103577},{-0.578416645526886,-0.17359289526939392,1.575958490371704,-0.3873611390590668,0.01169667299836874,1.3544888496398926,-0.4065442383289337,0.13097535073757172},{0.11679204553365707,0.30087822675704956,-0.0028925135266035795,0.1416395604610443,-0.007468566298484802,-0.017560701817274094,-0.0806095078587532,-0.34834831953048706},{0.1274501532316208,0.2500407099723816,0.09405697137117386,-0.2988983690738678,-0.18495337665081024,0.3228756785392761,-0.3834594488143921,0.5843080282211304}};
static const float actor_encoder_obstacle_encoder_2_weight[8][8] = {{0.026968320831656456,-0.09526009857654572,-0.05545844882726669,0.20970690250396729,-0.37839818000793457,-0.18385900557041168,0.2788507044315338,0.7525078058242798},{0.2917690873146057,-0.3430774211883545,0.11238068342208862,0.18414315581321716,-0.11692603677511215,0.6053591370582581,-0.34832632541656494,-0.31718888878822327},{-0.07252798229455948,-0.3289366066455841,-0.6356817483901978,-0.35169845819473267,0.41600748896598816,-0.20853377878665924,-0.9038082361221313,-0.1865430772304535},{-0.8020505905151367,-0.19812992215156555,0.18501228094100952,-0.18842463195323944,0.18825027346611023,-0.1711576133966446,-0.6368727087974548,0.37648969888687134},{0.48300641775131226,0.3723744750022888,-1.0176167488098145,0.13926656544208527,-0.48840388655662537,-0.2211700826883316,0.5389609932899475,0.5250463485717773},{-0.49198201298713684,-0.19058191776275635,0.023804442957043648,-0.30944588780403137,0.6461150050163269,0.13324888050556183,0.4355393946170807,0.4658474028110504},{-0.4968346655368805,-0.5965763330459595,-0.00899796187877655,-0.22306932508945465,0.31137749552726746,0.538875937461853,-0.8162655234336853,0.370133638381958},{0.0016549044521525502,-0.14121806621551514,0.43420305848121643,0.6031197309494019,0.01238282397389412,0.4850676357746124,-0.41261082887649536,-0.24883508682250977}};
static const float actor_encoder_feed_forward_0_weight[32][32] = {{0.02916388027369976,0.07611875981092453,0.17457215487957,0.037182699888944626,0.21647483110427856,0.19896219670772552,-0.09117621928453445,0.4349707067012787,0.014005808159708977,0.17712412774562836,-0.09137439727783203,0.12821179628372192,-0.22419555485248566,-0.204888716340065,-0.17723767459392548,-0.12858684360980988,0.20611146092414856,-0.07177623361349106,0.1874804049730301,-0.05490167438983917,-0.1401352733373642,0.21276229619979858,-0.07495740801095963,-0.4038190245628357,-0.3051343858242035,0.29788273572921753,0.18697267770767212,0.33752965927124023,-0.3250338137149811,0.1308806985616684,-0.0551626980304718,-0.0837005004286766},{0.26911067962646484,-0.11559324711561203,0.03398288041353226,-0.01528568658977747,0.052840881049633026,-0.14679881930351257,-0.05794426426291466,-0.19801104068756104,-0.3635592460632324,0.009160875342786312,0.17911171913146973,0.2119721621274948,-0.010726142674684525,0.13551302254199982,-0.3525146543979645,0.04105725511908531,0.08004699647426605,-0.3013858497142792,-0.30400827527046204,0.19411194324493408,0.2033383995294571,0.08174008876085281,0.16239643096923828,-0.09496256709098816,-0.27581989765167236,0.26810649037361145,0.1919042319059372,-0.0748954713344574,0.3233993351459503,0.2347996085882187,-0.23870739340782166,-0.08026214689016342},{-0.054693929851055145,-0.21986111998558044,0.26669394969940186,0.10027612000703812,-0.024156825616955757,-0.20073620975017548,0.12713627517223358,0.2835119962692261,0.2582854926586151,0.08917564153671265,0.0816061943769455,-0.2356625497341156,-0.042689040303230286,-0.1982065588235855,-0.1641690731048584,0.19578111171722412,-0.2680954039096832,-0.09402640908956528,0.040209151804447174,0.3030616343021393,0.09961777925491333,-0.33623892068862915,-0.07037077844142914,0.07247617095708847,-0.07841646671295166,0.10832180827856064,-0.12432015687227249,0.14975455403327942,0.15832138061523438,-0.1795913577079773,-0.39666861295700073,0.1982065588235855},{-0.016707997769117355,0.019260909408330917,-0.21646128594875336,0.10443282872438431,-0.31296873092651367,-0.29795175790786743,-0.1689843088388443,-0.15165628492832184,-0.3096584379673004,0.0985887423157692,-0.012514932081103325,0.07591395080089569,0.3243151605129242,0.05877210572361946,-0.02224528230726719,0.06289215385913849,0.29795172810554504,-0.1362384855747223,-0.03643646836280823,0.08366896957159042,0.3590202033519745,0.29814261198043823,0.2132895588874817,0.21306954324245453,0.006395798176527023,-0.04326481744647026,0.11948534101247787,-0.05787955969572067,0.20621393620967865,-0.29279041290283203,0.024996083229780197,-0.1701868176460266},{0.22029882669448853,-0.19988472759723663,-0.23033778369426727,-0.18697506189346313,-0.3309255540370941,-0.4526958763599396,-0.05796586349606514,0.007799761835485697,0.06835896521806717,0.171880304813385,0.17904673516750336,-0.24361616373062134,-0.26363396644592285,0.10649674385786057,-0.3316364884376526,0.07393338531255722,0.14010974764823914,0.25275740027427673,0.008163516409695148,-0.22944438457489014,0.3872259557247162,-0.13085521757602692,-0.25102847814559937,-0.026373662054538727,0.09844011068344116,-0.1172705888748169,0.025203611701726913,0.2533690929412842,-0.21207934617996216,-0.14569996297359467,-0.12322798371315002,-0.1426074355840683},{-0.19718140363693237,0.3096023499965668,0.1351890116930008,-0.24473629891872406,0.19200509786605835,-0.2007884979248047,-0.03327763453125954,0.04727012291550636,-0.05540793389081955,0.01241824310272932,0.16639821231365204,-0.427921324968338,-0.13058161735534668,0.15883223712444305,-0.17734137177467346,-0.09334471821784973,-0.12010300904512405,0.07598037272691727,0.05043486878275871,0.051150184124708176,0.032576534897089005,0.2953285574913025,0.10467170923948288,0.14911748468875885,0.23303423821926117,-0.15893438458442688,0.16270089149475098,0.1002008393406868,-0.06995027512311935,-0.11853508651256561,-0.2147812694311142,0.029227424412965775},{-0.2528814673423767,0.1873089075088501,0.07046634703874588,-0.053721509873867035,-0.11007262766361237,-0.20065297186374664,0.013555691577494144,0.2593868672847748,-0.10763998329639435,-0.09855093061923981,0.27761033177375793,-0.11863811314105988,-0.23877722024917603,0.14401842653751373,0.094813771545887,0.2652391195297241,0.0027740804944187403,-0.05395885184407234,0.18074136972427368,0.14942944049835205,-0.43901875615119934,-0.20811742544174194,-0.05932057648897171,0.026554662734270096,0.2507569491863251,0.12834963202476501,0.008793197572231293,0.1621464341878891,0.2816944122314453,0.09845931082963943,-0.07250043749809265,0.17453551292419434},{0.043072283267974854,0.14723043143749237,0.08155263960361481,0.2574855089187622,-0.13842080533504486,-0.2556946277618408,0.06682457029819489,0.023366596549749374,0.00853451993316412,0.17816109955310822,0.3288070261478424,-0.21826598048210144,0.3111107647418976,0.026212375611066818,-0.2691514492034912,0.11715584248304367,0.11833469569683075,0.17908595502376556,0.2237643450498581,-0.041954852640628815,0.037672754377126694,-0.060099758207798004,0.10804013907909393,0.2047731727361679,0.1970728039741516,0.043627165257930756,0.12692606449127197,0.25722652673721313,0.0018526040948927402,-0.00591512443497777,-0.3410585820674896,0.14651118218898773},{0.11736366897821426,-0.031712815165519714,0.12457118183374405,-0.09000436961650848,0.2817954421043396,0.3292783200740814,0.09261414408683777,-0.017649611458182335,0.14091140031814575,0.2657056450843811,-0.051637113094329834,-0.1611715853214264,0.11970683932304382,0.0456923246383667,0.203598290681839,0.08702065795660019,-0.12462345510721207,-0.15714681148529053,-0.025642385706305504,-0.1375393569469452,-0.4282039999961853,0.04400653392076492,0.11154267191886902,-0.21047291159629822,-0.3315717279911041,-0.2799873948097229,-0.09350448101758957,0.2728869915008545,0.0825943797826767,-0.13053759932518005,0.34078046679496765,0.016491126269102097},{-0.1942054033279419,-0.37805506587028503,-0.07460863143205643,-0.11323266476392746,0.2413276880979538,0.3814399838447571,-0.28014296293258667,0.01026319433003664,0.1505909413099289,-0.18691286444664001,0.008495272137224674,0.11936565488576889,0.22712598741054535,-0.18282444775104523,0.24867425858974457,0.1683165282011032,0.021304458379745483,0.3660912811756134,0.11230862140655518,0.18609361350536346,-0.15528690814971924,-0.28427672386169434,0.18443253636360168,0.3383953273296356,0.08670642226934433,-0.12339896708726883,0.17495328187942505,-0.013408733531832695,-0.31771913170814514,0.21534724533557892,0.12652190029621124,-0.10733853280544281},{0.28718680143356323,-0.1640171855688095,-0.1328049600124359,0.10268521308898926,-0.09789568930864334,0.18082256615161896,0.05555519089102745,0.11432413011789322,0.2528207004070282,-0.23818284273147583,0.21285174787044525,0.2687050700187683,-0.24377745389938354,-0.11276344209909439,0.421448290348053,0.15020780265331268,-0.11780616641044617,-0.012977232225239277,0.21155236661434174,-0.14413340389728546,-0.06936381757259369,0.19088956713676453,0.22103220224380493,0.11356395483016968,-0.25710830092430115,-0.19513745605945587,0.032821688801050186,0.30254116654396057,-0.2269825041294098,-0.12805379927158356,-0.07001829892396927,-0.13483288884162903},{0.05003366991877556,0.020434342324733734,0.20948100090026855,0.10009469836950302,-0.19716988503932953,-0.1763084977865219,-0.11566274613142014,0.2555309236049652,0.13763079047203064,-0.14971540868282318,0.10248757153749466,-0.2034863978624344,0.1927838921546936,0.02159406989812851,-0.15278524160385132,0.10505392402410507,-0.25093212723731995,-0.22698874771595,-0.2691487967967987,-0.2879060208797455,0.04986431077122688,0.09272529929876328,-0.19736525416374207,0.17900298535823822,0.2453283667564392,0.1340039074420929,-0.1047973707318306,-0.06690749526023865,0.3581881821155548,0.24818632006645203,-0.2716485559940338,0.1607007533311844},{-0.01041643787175417,-0.10041318833827972,-0.18196919560432434,-0.0029555021319538355,-0.17766542732715607,0.24085476994514465,0.2475038468837738,-0.18159553408622742,-0.02353043295443058,0.164841428399086,0.25491413474082947,0.12422747910022736,0.079192616045475,0.23752549290657043,-0.005198759026825428,0.027520116418600082,-0.21126426756381989,-0.20886856317520142,0.2815997898578644,-0.09794484823942184,0.08779311180114746,-0.02772551029920578,0.34645581245422363,-0.24260349571704865,-0.15939392149448395,0.017699185758829117,0.18628279864788055,0.3016301393508911,-0.3404724895954132,-0.07486946880817413,0.24913841485977173,0.08938159048557281},{0.037667952477931976,0.04001178219914436,0.19255587458610535,-0.058725353330373764,0.2678290903568268,0.052901893854141235,0.008293824270367622,-0.22158540785312653,-0.11781162023544312,0.19885067641735077,0.04350690543651581,-0.18130125105381012,-0.1919286847114563,0.0893993228673935,0.03036859817802906,-0.059734638780355453,0.22468194365501404,-0.11235832422971725,-0.22871603071689606,0.04850060120224953,-0.47053131461143494,-0.04727630689740181,0.031002040952444077,-0.3305211365222931,-0.07408399134874344,-0.24387933313846588,0.059340447187423706,-0.1265241503715515,0.2353026568889618,0.005966135300695896,0.41131216287612915,0.11420860141515732},{-0.1811571568250656,-0.12953446805477142,0.15545552968978882,-0.19347698986530304,0.033749062567949295,0.009567640721797943,-0.08112800121307373,-0.13442277908325195,-0.17005419731140137,-0.36153239011764526,-0.3906726837158203,-0.07731644064188004,-0.019273672252893448,0.012833482585847378,0.2041039764881134,-0.16614729166030884,-0.24704429507255554,0.031159650534391403,-0.23218683898448944,-0.03907693177461624,0.01806599833071232,-0.04047640413045883,-0.3566001355648041,0.3913002610206604,-0.2710113823413849,0.25656068325042725,0.3785621225833893,-0.08367759734392166,0.15038688480854034,0.3063565790653229,0.18309535086154938,0.27698612213134766},{-0.03688080981373787,0.18631505966186523,0.2302652895450592,-0.14713670313358307,-0.17545077204704285,-0.24294106662273407,-0.21166099607944489,0.013255763798952103,-0.26508286595344543,0.03698106110095978,0.12230478227138519,-0.15897056460380554,-0.05652167648077011,-0.23217804729938507,-0.4004596173763275,-0.03936564549803734,0.14892956614494324,0.2553591728210449,0.10414610058069229,0.16032831370830536,0.050189241766929626,-0.30361247062683105,-0.1752028912305832,0.1810116469860077,-0.010030156932771206,-0.2359323501586914,0.2417905032634735,-0.2851333022117615,0.22461529076099396,-0.27394533157348633,-0.17333701252937317,-0.15438374876976013},{-0.14318399131298065,-0.18459753692150116,0.10579275339841843,0.06797535717487335,-0.11435310542583466,-0.2806483507156372,-0.21826623380184174,-0.2174985706806183,-0.05159708857536316,-0.0032462591771036386,-0.12383563071489334,-0.265370637178421,0.17173798382282257,0.03872796148061752,-0.12720011174678802,0.0036571298260241747,-0.0016801084857434034,0.07356497645378113,-0.11657463014125824,0.10995243489742279,0.2108495831489563,0.03129807859659195,-0.18971961736679077,0.2365458458662033,-0.01210862584412098,-0.17662440240383148,0.09104498475790024,0.16385501623153687,-0.06787596642971039,0.2993564307689667,0.07637695223093033,-0.30936217308044434},{-0.012575752101838589,-0.1434187889099121,-0.032244160771369934,-0.08424190431833267,0.2249581515789032,0.049824025481939316,0.024219172075390816,-0.060973599553108215,0.025736238807439804,-0.33693453669548035,-0.2000671923160553,-0.054364610463380814,-0.1013231948018074,-0.03721486032009125,0.03983601555228233,-0.02927117981016636,0.21781639754772186,-0.26468414068222046,0.24761644005775452,-0.0849696695804596,0.0838252380490303,-0.0950450748205185,0.02598113939166069,-0.11634254455566406,0.26573437452316284,0.3239910900592804,0.18236024677753448,0.07875271886587143,0.02280024252831936,0.23274646699428558,-0.06927349418401718,-0.026107223704457283},{0.16837161779403687,-0.05698511749505997,0.1288360208272934,-0.11747033894062042,0.05838221684098244,-0.02236064150929451,-0.22488555312156677,-0.3602719306945801,0.20405632257461548,0.0706075131893158,0.009162774309515953,-0.04161493480205536,-0.05120174586772919,-0.04945448786020279,0.0544009767472744,0.023144477978348732,0.05951540544629097,-0.11531879752874374,0.01075927447527647,0.004330448340624571,-0.21723361313343048,-0.2371787130832672,-0.2265740931034088,-0.1107165515422821,0.015354540199041367,-0.04794749245047569,-0.23789510130882263,0.23559245467185974,-0.10967037826776505,-0.1793498694896698,0.0013901474885642529,-0.22412391006946564},{0.21139417588710785,0.35175180435180664,-0.1597806066274643,0.263212114572525,-0.18834637105464935,0.17474272847175598,0.08912040293216705,0.25667670369148254,-0.08253003656864166,0.23523253202438354,-0.11831753700971603,-0.03460663929581642,-0.1255706399679184,0.08693501353263855,0.02945350669324398,0.01660863868892193,0.42784377932548523,0.002439936390146613,0.15912166237831116,0.18426008522510529,0.07908887416124344,-0.19958889484405518,-0.11912772059440613,0.11040522903203964,-0.3068288564682007,0.21724507212638855,-0.15957948565483093,0.1392924040555954,0.17999957501888275,0.10657467693090439,-0.042388446629047394,0.1949034184217453},{-0.02440149523317814,-0.1697646826505661,0.22820094227790833,0.15071924030780792,-0.0676831603050232,0.23154772818088531,0.15576928853988647,0.3502364158630371,0.004999239929020405,0.27953460812568665,0.04207346588373184,-0.12865497171878815,-0.3498978316783905,0.16935893893241882,0.2521815598011017,-0.0312514565885067,0.1341305524110794,-0.12420947104692459,0.09172908216714859,-0.22015073895454407,0.1330031305551529,0.14034785330295563,-0.11469996720552444,-0.1728682667016983,0.15964221954345703,0.046216100454330444,0.13218264281749725,0.1011853739619255,0.08261777460575104,-0.17691902816295624,-0.1364850550889969,-0.17075595259666443},{-0.08042382448911667,0.42908814549446106,0.15424154698848724,-0.16027198731899261,-0.26761066913604736,0.012215901166200638,0.3336075246334076,0.08498530089855194,-0.21429407596588135,0.40428805351257324,-0.1860177367925644,-0.20606856048107147,-0.027149124071002007,0.02074291929602623,0.1484432965517044,0.18565720319747925,0.06771169602870941,0.15440887212753296,0.05544523149728775,0.1787174940109253,0.12000565230846405,-0.14862948656082153,-0.16138623654842377,0.13117173314094543,0.2257481962442398,-0.17549890279769897,0.1591254323720932,-0.19724823534488678,0.055691447108983994,0.012350586242973804,-0.10988600552082062,-0.07372081279754639},{0.11524267494678497,-0.24772347509860992,0.06682468205690384,0.41353288292884827,0.11888384073972702,0.011372271925210953,0.125870943069458,0.09216359257698059,0.18404321372509003,-0.14145325124263763,0.02094142511487007,-0.06218976527452469,0.03431280702352524,-0.031121468171477318,0.2138056755065918,-0.06483389437198639,0.22681573033332825,0.10085168480873108,0.12225073575973511,-0.17597217857837677,-0.01773819699883461,0.14681315422058105,0.030143439769744873,0.26519718766212463,-0.11731448024511337,0.008759872987866402,-0.04980956390500069,-0.23661306500434875,0.03613905608654022,0.2596295475959778,-0.0009317609947174788,-0.1429625004529953},{0.010098127648234367,0.14709791541099548,-0.029120350256562233,-0.24684542417526245,0.14802497625350952,0.023693621158599854,0.04557613655924797,0.14945000410079956,0.14437413215637207,-0.022122008726000786,0.07367835938930511,-0.1284722536802292,0.10463356971740723,0.08674227446317673,-0.08011151105165482,0.1214996948838234,0.13766784965991974,0.07362306118011475,-0.007847846485674381,0.2517218291759491,-0.07818654924631119,-0.29931655526161194,0.2423180639743805,0.014813551679253578,0.19365306198596954,-0.05936059355735779,-0.13191105425357819,-0.0762801468372345,-0.07099805027246475,0.028843864798545837,-0.006387198343873024,0.05219375342130661},{0.11643683165311813,0.08457066863775253,-0.07232128828763962,0.3262517750263214,0.014487536624073982,-0.06902734935283661,-0.3182290494441986,0.09655680507421494,-0.07961232960224152,0.06233149766921997,0.01975833997130394,-0.2576247751712799,-0.2774609327316284,-0.18816933035850525,-0.010447763837873936,-0.09991057962179184,-0.18388564884662628,-0.16505658626556396,-0.23463687300682068,-0.3660452663898468,0.10506446659564972,-0.012581083923578262,-0.10145996510982513,-0.41666704416275024,0.10487078875303268,0.06729336827993393,0.11254092305898666,0.3741239905357361,0.10445006191730499,0.13263076543807983,0.03574642911553383,-0.05660424754023552},{-0.03866095840930939,-0.2260473221540451,-0.3076924979686737,0.33191514015197754,0.14616064727306366,0.09545327723026276,-0.10053182393312454,0.059913117438554764,-0.05477415770292282,-0.19957585632801056,0.005776674952358007,0.1196877732872963,0.02356278896331787,-0.4335653483867645,0.092160165309906,-0.27632415294647217,0.2582853436470032,0.08468490839004517,0.057975396513938904,0.12713468074798584,0.02696358412504196,0.03146939352154732,0.2343556135892868,0.15759634971618652,0.01593731716275215,0.05648445710539818,0.2190205603837967,-0.17299963533878326,-0.14052313566207886,0.35038530826568604,-0.17120669782161713,-9.127101293415762e-06},{-0.00557937566190958,0.014235459268093109,0.06498782336711884,0.2462216168642044,-0.049256253987550735,-0.1854342818260193,0.34457504749298096,0.008749728091061115,0.02240014262497425,-0.15127824246883392,-0.3357565701007843,-0.16890986263751984,0.056804198771715164,-0.412360817193985,0.14445045590400696,0.056148461997509,0.3212352693080902,-0.13908030092716217,-0.0745488628745079,0.055189672857522964,0.18420632183551788,-0.18794065713882446,0.23232993483543396,-0.18441317975521088,-0.2011803835630417,0.14013567566871643,0.05206023529171944,-0.03554760292172432,0.09807460010051727,0.15667970478534698,0.08882962912321091,0.180337592959404},{0.36569929122924805,-0.1619013547897339,-0.12516874074935913,-0.07722165435552597,0.13711541891098022,0.06204966828227043,0.13620124757289886,0.2673761248588562,0.08404417335987091,0.05940936878323555,0.05940140411257744,0.07354672998189926,-0.013824873603880405,0.03948398306965828,-0.3869521915912628,-0.13290907442569733,-0.14306578040122986,0.30051544308662415,0.12116716802120209,-0.1818128228187561,0.21376609802246094,-0.07492893934249878,0.2406138926744461,0.07977361977100372,0.2570732831954956,-0.22245074808597565,0.14349199831485748,-0.10615136474370956,0.20425398647785187,0.007541297934949398,-0.03615785390138626,-0.023091984912753105},{0.1775808334350586,-0.22366826236248016,0.14323118329048157,-0.28020304441452026,0.09549029171466827,-0.18505947291851044,0.211545929312706,-0.22532683610916138,-0.2035944014787674,0.1460174322128296,-0.1146354004740715,0.16941267251968384,-0.2743009626865387,0.003846023930236697,-0.15902362763881683,-0.0973173975944519,0.12063654512166977,0.12543977797031403,-0.09287148714065552,-0.11356944590806961,-0.0740627720952034,-0.04395894706249237,0.13955555856227875,0.2379378378391266,0.4295523762702942,-0.02182638831436634,-0.3373350501060486,-0.05719491094350815,-0.0576593279838562,0.07694707810878754,0.07617375254631042,-0.23002329468727112},{0.19080229103565216,-0.23802584409713745,0.2269708663225174,0.03974161669611931,0.07321777939796448,0.05956311896443367,0.24418272078037262,-0.033742912113666534,-0.08934993296861649,0.04017264023423195,0.20068499445915222,0.208241805434227,0.2575600743293762,0.0549808070063591,-0.1029888242483139,0.022758187726140022,0.2638814449310303,0.06670764833688736,0.09535186737775803,0.02670779451727867,-0.09208399057388306,0.023639358580112457,0.04676638916134834,-0.24186702072620392,-0.13279473781585693,-0.010811877436935902,0.2705943286418915,-0.10675687342882156,-0.08723954111337662,-0.2366674393415451,0.2299715280532837,0.2684655487537384},{-0.1533091962337494,0.18275395035743713,0.4565475583076477,-0.29421427845954895,-0.3367672264575958,0.11797519773244858,0.2697996497154236,0.037958551198244095,0.2060166895389557,-0.2380329966545105,-0.2525767385959625,0.07069392502307892,0.32952508330345154,0.007372730411589146,-0.19012437760829926,0.29459574818611145,0.24074698984622955,-0.08448830991983414,0.28137457370758057,0.38533005118370056,0.009626696817576885,-0.3327139914035797,0.30092281103134155,-0.06092865392565727,0.14662717282772064,0.33348777890205383,-0.01798163168132305,-0.17471912503242493,-0.08682668954133987,0.00823432020843029,0.3038361072540283,-0.08095990866422653},{0.0989110916852951,-0.08166740089654922,0.2728695571422577,-0.08206875622272491,-0.1371147334575653,-0.1936846226453781,0.01454624067991972,0.17472843825817108,-0.11912865191698074,0.24980774521827698,0.2553821802139282,0.269256591796875,0.006531704217195511,0.2910180687904358,-0.0004586145223584026,-0.019856629893183708,-0.36330142617225647,0.2756006717681885,0.24202083051204681,0.0439053438603878,-0.1078631728887558,-0.05823349207639694,-0.09625916928052902,-0.031696900725364685,0.016893833875656128,0.03681041672825813,0.08647668361663818,0.0016934960149228573,-0.26502424478530884,-0.28784215450286865,0.06237587332725525,-0.33075228333473206}};
static const float action_parameterization_distribution_linear_weight[32][4] = {{0.1962679922580719,0.2005210965871811,-0.06687666475772858,0.09405628591775894},{-0.014470012858510017,0.16777344048023224,0.1691216379404068,0.20035292208194733},{0.01104331761598587,-0.20510663092136383,-0.10338519513607025,0.16067856550216675},{-0.2428276687860489,0.16848048567771912,0.11774533987045288,-0.0923609659075737},{0.02815641276538372,0.05045555904507637,0.0174876619130373,-0.19435033202171326},{0.04576348513364792,-0.039164043962955475,0.3002606928348541,-0.33758190274238586},{-0.15042926371097565,-0.09849143028259277,-0.015072944574058056,0.25747716426849365},{0.0975833609700203,0.2063220590353012,0.1690865457057953,0.14320839941501617},{-0.23564790189266205,0.03357429429888725,-0.18670542538166046,-0.2188737541437149},{-0.007660486735403538,0.17601892352104187,-0.10541871190071106,0.1082947850227356},{0.04746445268392563,0.06686187535524368,-0.02764338254928589,-0.026780076324939728},{-0.0850747749209404,-0.24307844042778015,-0.22123540937900543,-0.14445637166500092},{-0.2654518485069275,-0.27618086338043213,0.11495043337345123,0.0707956999540329},{0.07665867358446121,0.004849855788052082,-0.03983956575393677,0.002578847808763385},{0.2591802179813385,-0.25064900517463684,0.054794859141111374,-0.2288225293159485},{-0.0012501099845394492,-0.0026025413535535336,-0.002452902030199766,-0.0018159019527956843},{-0.1561587005853653,-0.10296133160591125,0.16177815198898315,0.07458413392305374},{0.14336448907852173,-0.20951727032661438,-0.31005603075027466,-0.12240195274353027},{-0.12130078673362732,-0.09118388593196869,-0.22318536043167114,0.16721434891223907},{-0.02205025590956211,-0.07287264615297318,0.08819727599620819,0.1123938262462616},{-0.3599601089954376,-0.16292664408683777,-0.2627854347229004,-0.20904922485351562},{-0.0668463334441185,0.33248889446258545,-0.11051591485738754,0.023557160049676895},{-0.10771159082651138,-0.113097183406353,-0.2043725997209549,0.33897653222084045},{0.26543188095092773,-0.2155875861644745,-0.2771318554878235,0.0928509458899498},{0.06997663527727127,-0.10424693673849106,-0.2315848022699356,0.01939791813492775},{-0.07775803655385971,-0.12791751325130463,0.029877811670303345,0.10610006749629974},{0.011624685488641262,-0.03504110500216484,0.10445286333560944,-0.17065994441509247},{-0.05622762069106102,0.22427557408809662,-0.19939492642879486,-0.06244320422410965},{0.2688789367675781,0.15265187621116638,0.19728364050388336,-0.1831844300031662},{-0.1849725842475891,0.05916302651166916,0.12242351472377777,-0.12108805775642395},{0.3320765197277069,-0.3815267086029053,0.08137766271829605,0.3091479241847992},{-0.14952726662158966,-0.06772933900356293,0.1670924723148346,-0.0685303807258606}};
static const float actor_encoder_neighbor_encoder_embedding_mlp_0_bias[8] = {-0.0300701055675745,0.11156913638114929,0.1944619119167328,0.02446490153670311,0.0023193410597741604,-0.1647728979587555,-0.018527422100305557,0.1150946319103241};
static const float actor_encoder_neighbor_encoder_embedding_mlp_2_bias[8] = {-0.05385199189186096,0.05898822471499443,-0.07204048335552216,0.0311195757240057,0.09806588292121887,-0.0721602812409401,0.021242577582597733,0.04430093988776207};
static const float actor_encoder_self_encoder_0_bias[16] = {0.015030236914753914,0.012458177283406258,0.08770935982465744,0.02743823640048504,-0.027419332414865494,-0.08449079841375351,-0.02085263468325138,-0.07065067440271378,-0.015482663176953793,-0.000554039899725467,-0.016536984592676163,-0.011572042480111122,-0.07575593143701553,0.012572207488119602,-0.048843659460544586,-0.10226257890462875};
static const float actor_encoder_self_encoder_2_bias[16] = {-0.03587983176112175,0.0226913932710886,0.060318272560834885,0.05826553702354431,-0.025235790759325027,0.09819213300943375,-0.05798216909170151,0.03485199436545372,0.028436370193958282,0.0613415390253067,0.09619849920272827,0.0198940709233284,0.06713417172431946,-0.10405831784009933,-0.19989626109600067,0.08139818906784058};
static const float actor_encoder_obstacle_encoder_0_bias[8] = {-0.12863336503505707,-0.1317286342382431,0.10929009318351746,-0.053199369460344315,-0.004702937323600054,-0.09159019589424133,0.2785583436489105,-0.06258829683065414};
static const float actor_encoder_obstacle_encoder_2_bias[8] = {-0.002527473261579871,0.08508437126874924,-0.06403700262308121,-0.06329625844955444,0.06386331468820572,0.030357027426362038,0.015332638286054134,0.034741658717393875};
static const float actor_encoder_feed_forward_0_bias[32] = {0.10209070891141891,0.05318240821361542,0.08135993778705597,-0.012540618889033794,-0.030412444844841957,-0.007495327852666378,-0.013294641859829426,0.03354587033390999,0.025178955867886543,0.07579650729894638,0.04020950198173523,0.04422864690423012,-0.045914310961961746,0.083875373005867,0.11341055482625961,-0.05055747926235199,-0.029724959284067154,-0.009388572536408901,0.053008731454610825,0.027044789865612984,-0.06937563419342041,0.04214445874094963,0.05476786196231842,-0.04665461555123329,0.039217159152030945,-0.016782280057668686,-0.06925533711910248,0.11673092097043991,-0.05872781574726105,-0.04023277014493942,0.10129342973232269,-0.04131453111767769};
static const float action_parameterization_distribution_linear_bias[4] = {0.010476309806108475,0.04298408329486847,-0.06499642133712769,0.047224003821611404};
void networkEvaluate(struct control_t_n *control_n, const float *state_array) {
        for (int i = 0; i < structure[0][1]; i++) {
            output_0[i] = 0;
            for (int j = 0; j < structure[0][0]; j++) {
                output_0[i] += state_array[j] * actor_encoder_neighbor_encoder_embedding_mlp_0_weight[j][i];
            }
            output_0[i] += actor_encoder_neighbor_encoder_embedding_mlp_0_bias[i];
            output_0[i] = tanhf(output_0[i]);
        }
    
        for (int i = 0; i < structure[1][1]; i++) {
            output_1[i] = 0;
            for (int j = 0; j < structure[1][0]; j++) {
                output_1[i] += output_0[j] * actor_encoder_neighbor_encoder_embedding_mlp_2_weight[j][i];
            }
            output_1[i] += actor_encoder_neighbor_encoder_embedding_mlp_2_bias[i];
            output_1[i] = tanhf(output_1[i]);
        }
        
        for (int i = 0; i < structure[2][1]; i++) {
            output_2[i] = 0;
            for (int j = 0; j < structure[2][0]; j++) {
                output_2[i] += output_1[j] * actor_encoder_self_encoder_0_weight[j][i];
            }
            output_2[i] += actor_encoder_self_encoder_0_bias[i];
            output_2[i] = tanhf(output_2[i]);
        }
        
        for (int i = 0; i < structure[3][1]; i++) {
            output_3[i] = 0;
            for (int j = 0; j < structure[3][0]; j++) {
                output_3[i] += output_2[j] * actor_encoder_self_encoder_2_weight[j][i];
            }
            output_3[i] += actor_encoder_self_encoder_2_bias[i];
            output_3[i] = tanhf(output_3[i]);
        }
        
        for (int i = 0; i < structure[4][1]; i++) {
            output_4[i] = 0;
            for (int j = 0; j < structure[4][0]; j++) {
                output_4[i] += output_3[j] * actor_encoder_obstacle_encoder_0_weight[j][i];
            }
            output_4[i] += actor_encoder_obstacle_encoder_0_bias[i];
            output_4[i] = tanhf(output_4[i]);
        }
        
        for (int i = 0; i < structure[5][1]; i++) {
            output_5[i] = 0;
            for (int j = 0; j < structure[5][0]; j++) {
                output_5[i] += output_4[j] * actor_encoder_obstacle_encoder_2_weight[j][i];
            }
            output_5[i] += actor_encoder_obstacle_encoder_2_bias[i];
            output_5[i] = tanhf(output_5[i]);
        }
        
        for (int i = 0; i < structure[6][1]; i++) {
            output_6[i] = 0;
            for (int j = 0; j < structure[6][0]; j++) {
                output_6[i] += output_5[j] * actor_encoder_feed_forward_0_weight[j][i];
            }
            output_6[i] += actor_encoder_feed_forward_0_bias[i];
            output_6[i] = tanhf(output_6[i]);
        }
        
                for (int i = 0; i < structure[7][1]; i++) {
                    output_7[i] = 0;
                    for (int j = 0; j < structure[7][0]; j++) {
                        output_7[i] += output_6[j] * action_parameterization_distribution_linear_weight[j][i];
                    }
                    output_7[i] += action_parameterization_distribution_linear_bias[i];
                }
    
            control_n->thrust_0 = output_7[0];
            control_n->thrust_1 = output_7[1];
            control_n->thrust_2 = output_7[2];
            control_n->thrust_3 = output_7[3];	
    }